
\data\
ngram 1=5
ngram 2=6
ngram 3=2

\1-grams:
-3      a     -.1
-2      b     -.2
-4	c
-99      <s>     -1.5
-1       </s>

\2-grams:
-.5      b </s> 
-1       b b    -2
-3       a b
-5       a a
-2       b a -8
-.3        <s> a  -1

\3-grams:
-.1 <s> a a
-.2   b b a

\end\
